<?xml version="1.0"?>
<opencv_storage>
<cascade>
  <stageType>BOOST</stageType>
  <featureType>HAAR</featureType>
  <height>24</height>
  <width>36</width>
  <stageParams>
    <boostType>GAB</boostType>
    <minHitRate>9.9500000476837158e-01</minHitRate>
    <maxFalseAlarm>5.0000000000000000e-01</maxFalseAlarm>
    <weightTrimRate>9.4999998807907104e-01</weightTrimRate>
    <maxDepth>1</maxDepth>
    <maxWeakCount>100</maxWeakCount></stageParams>
  <featureParams>
    <maxCatCount>0</maxCatCount>
    <featSize>1</featSize>
    <mode>BASIC</mode></featureParams>
  <stageNum>7</stageNum>
  <stages>
    <!-- stage 0 -->
    <_>
      <maxWeakCount>1</maxWeakCount>
      <stageThreshold>9.0476191043853760e-01</stageThreshold>
      <weakClassifiers>
        <_>
          <internalNodes>
            0 -1 9 7.5004324316978455e-03</internalNodes>
          <leafValues>
            -1. 9.0476191043853760e-01</leafValues></_></weakClassifiers></_>
    <!-- stage 1 -->
    <_>
      <maxWeakCount>2</maxWeakCount>
      <stageThreshold>-1.8758766353130341e-02</stageThreshold>
      <weakClassifiers>
        <_>
          <internalNodes>
            0 -1 11 -1.0992455645464361e-04</internalNodes>
          <leafValues>
            8.8095235824584961e-01 -9.7142857313156128e-01</leafValues></_>
        <_>
          <internalNodes>
            0 -1 3 -4.1606679558753967e-02</internalNodes>
          <leafValues>
            9.5266979932785034e-01 -8.0064159631729126e-01</leafValues></_></weakClassifiers></_>
    <!-- stage 2 -->
    <_>
      <maxWeakCount>2</maxWeakCount>
      <stageThreshold>4.0335729718208313e-02</stageThreshold>
      <weakClassifiers>
        <_>
          <internalNodes>
            0 -1 1 -3.8073688745498657e-01</internalNodes>
          <leafValues>
            1. -7.0114940404891968e-01</leafValues></_>
        <_>
          <internalNodes>
            0 -1 6 -5.1196655258536339e-03</internalNodes>
          <leafValues>
            7.4148517847061157e-01 -9.5095044374465942e-01</leafValues></_></weakClassifiers></_>
    <!-- stage 3 -->
    <_>
      <maxWeakCount>3</maxWeakCount>
      <stageThreshold>-9.1083586215972900e-01</stageThreshold>
      <weakClassifiers>
        <_>
          <internalNodes>
            0 -1 2 -2.8886932134628296e-01</internalNodes>
          <leafValues>
            1. -7.0114940404891968e-01</leafValues></_>
        <_>
          <internalNodes>
            0 -1 12 -7.3370902100577950e-05</internalNodes>
          <leafValues>
            7.9626417160034180e-01 -8.3813142776489258e-01</leafValues></_>
        <_>
          <internalNodes>
            0 -1 5 1.0488792759133503e-04</internalNodes>
          <leafValues>
            6.2844496965408325e-01 -8.5809183120727539e-01</leafValues></_></weakClassifiers></_>
    <!-- stage 4 -->
    <_>
      <maxWeakCount>2</maxWeakCount>
      <stageThreshold>1.7804162204265594e-01</stageThreshold>
      <weakClassifiers>
        <_>
          <internalNodes>
            0 -1 0 -1.8230630457401276e-01</internalNodes>
          <leafValues>
            1. -6.8181818723678589e-01</leafValues></_>
        <_>
          <internalNodes>
            0 -1 8 -2.6044730097055435e-02</internalNodes>
          <leafValues>
            8.6435586214065552e-01 -8.2195836305618286e-01</leafValues></_></weakClassifiers></_>
    <!-- stage 5 -->
    <_>
      <maxWeakCount>2</maxWeakCount>
      <stageThreshold>3.6925833672285080e-02</stageThreshold>
      <weakClassifiers>
        <_>
          <internalNodes>
            0 -1 13 1.6817398136481643e-04</internalNodes>
          <leafValues>
            -8.9333331584930420e-01 9.2405062913894653e-01</leafValues></_>
        <_>
          <internalNodes>
            0 -1 4 -1.1509267985820770e-01</internalNodes>
          <leafValues>
            9.3025916814804077e-01 -7.1199387311935425e-01</leafValues></_></weakClassifiers></_>
    <!-- stage 6 -->
    <_>
      <maxWeakCount>2</maxWeakCount>
      <stageThreshold>-3.6639045923948288e-02</stageThreshold>
      <weakClassifiers>
        <_>
          <internalNodes>
            0 -1 7 -6.6021442413330078e-02</internalNodes>
          <leafValues>
            8.5542166233062744e-01 -9.1549295186996460e-01</leafValues></_>
        <_>
          <internalNodes>
            0 -1 10 -3.8342317566275597e-04</internalNodes>
          <leafValues>
            8.7885391712188721e-01 -8.5799342393875122e-01</leafValues></_></weakClassifiers></_></stages>
  <features>
    <_>
      <rects>
        <_>
          0 10 33 5 -1.</_>
        <_>
          11 10 11 5 3.</_></rects>
      <tilted>0</tilted></_>
    <_>
      <rects>
        <_>
          2 1 30 17 -1.</_>
        <_>
          12 1 10 17 3.</_></rects>
      <tilted>0</tilted></_>
    <_>
      <rects>
        <_>
          3 1 27 15 -1.</_>
        <_>
          12 1 9 15 3.</_></rects>
      <tilted>0</tilted></_>
    <_>
      <rects>
        <_>
          3 3 16 7 -1.</_>
        <_>
          11 3 8 7 2.</_></rects>
      <tilted>0</tilted></_>
    <_>
      <rects>
        <_>
          8 9 24 14 -1.</_>
        <_>
          16 9 8 14 3.</_></rects>
      <tilted>0</tilted></_>
    <_>
      <rects>
        <_>
          9 1 4 3 -1.</_>
        <_>
          11 1 2 3 2.</_></rects>
      <tilted>0</tilted></_>
    <_>
      <rects>
        <_>
          9 8 21 9 -1.</_>
        <_>
          9 11 21 3 3.</_></rects>
      <tilted>0</tilted></_>
    <_>
      <rects>
        <_>
          10 10 26 14 -1.</_>
        <_>
          10 10 13 7 2.</_>
        <_>
          23 17 13 7 2.</_></rects>
      <tilted>0</tilted></_>
    <_>
      <rects>
        <_>
          11 0 13 8 -1.</_>
        <_>
          11 4 13 4 2.</_></rects>
      <tilted>0</tilted></_>
    <_>
      <rects>
        <_>
          17 7 8 6 -1.</_>
        <_>
          21 7 4 6 2.</_></rects>
      <tilted>0</tilted></_>
    <_>
      <rects>
        <_>
          30 20 4 3 -1.</_>
        <_>
          32 20 2 3 2.</_></rects>
      <tilted>0</tilted></_>
    <_>
      <rects>
        <_>
          33 21 2 3 -1.</_>
        <_>
          34 21 1 3 2.</_></rects>
      <tilted>0</tilted></_>
    <_>
      <rects>
        <_>
          34 22 2 2 -1.</_>
        <_>
          34 23 2 1 2.</_></rects>
      <tilted>0</tilted></_>
    <_>
      <rects>
        <_>
          35 2 1 4 -1.</_>
        <_>
          35 4 1 2 2.</_></rects>
      <tilted>0</tilted></_></features></cascade>
</opencv_storage>
